{"layers":[{"cPosX":{},"cPosY":{},"myPosX":{},"myPosY":{}},{"0":{"bias":-1.2852957007335015,"weights":{"cPosX":10.930702737883426,"cPosY":-17.759741797732783,"myPosX":-17.296856336011274,"myPosY":25.411751275679777}},"1":{"bias":1.4103903896666048,"weights":{"cPosX":21.91753135466932,"cPosY":-4.258343947444732,"myPosX":-18.59654459270728,"myPosY":-0.7455054414734299}},"2":{"bias":11.873534480178026,"weights":{"cPosX":15.32236398235221,"cPosY":-30.360275213052546,"myPosX":-19.58457371610892,"myPosY":11.388478582061653}},"3":{"bias":-2.462137017808202,"weights":{"cPosX":12.452206637874593,"cPosY":16.171699766015863,"myPosX":-17.57109856937196,"myPosY":-11.49990726330514}}},{"0":{"bias":2.1719355698893392,"weights":{"0":18.550874864598114,"1":-23.980037580361756,"2":-8.519938178164775,"3":-4.539251635898385}},"1":{"bias":-16.49790580840998,"weights":{"0":15.056189803431957,"1":12.96361514964999,"2":-1.2792552123367524,"3":13.523512063152168}},"2":{"bias":1.884308830737706,"weights":{"0":-5.545163742434495,"1":33.64859003014517,"2":-27.355667975661166,"3":-25.66859155431086}},"3":{"bias":-2.459369549037859,"weights":{"0":11.299489266987372,"1":-7.462167454592098,"2":8.109208142254612,"3":-11.711807573117241}},"4":{"bias":-7.414031235395301,"weights":{"0":-5.0689931539335245,"1":-23.26003173206505,"2":11.48490878816641,"3":14.961869148103922}},"5":{"bias":5.632422810876004,"weights":{"0":-6.794414001350453,"1":-5.077396291258092,"2":0.42266568731372073,"3":2.841206356375323}}},{"left":{"bias":-2.887620389093336,"weights":{"0":-0.3722373270258267,"1":-11.569937085600555,"2":-18.40230417023421,"3":6.623499824145268,"4":5.533445038628046,"5":20.19696372845343}},"right":{"bias":12.84960508854065,"weights":{"0":6.24700901538559,"1":3.303170075519277,"2":20.143135293650996,"3":-16.398455135085847,"4":-3.529800192781169,"5":-37.16960293863286}},"up":{"bias":-0.41717917118040193,"weights":{"0":-9.380294999351833,"1":-17.630390340776863,"2":-8.00413351887616,"3":24.080017860109074,"4":-11.232224521469433,"5":-17.628101952541467}},"down":{"bias":-10.094391889163115,"weights":{"0":-6.72579670757373,"1":10.251167804619884,"2":-9.750440690192837,"3":-32.451236844673105,"4":-15.448609067400607,"5":26.453211737310724}}}],"outputLookup":true,"inputLookup":true}