{"layers":[{"cPosX":{},"cPosY":{},"myPosX":{},"myPosY":{},"mySpdX":{},"mySpdY":{}},{"0":{"bias":33.67393726006014,"weights":{"cPosX":4.7529472341498264,"cPosY":-58.14302001300296,"myPosX":5.5970253693240695,"myPosY":80.73099157747349,"mySpdX":-16.614725383468375,"mySpdY":0.8830259634594043}},"1":{"bias":-217.3303678532105,"weights":{"cPosX":0.42215146428471617,"cPosY":1.7393056823703021,"myPosX":-0.36894029359289887,"myPosY":-4.369977762797017,"mySpdX":9.178771252932794,"mySpdY":427.17548320746846}},"2":{"bias":41.58504505855052,"weights":{"cPosX":-82.13786077608741,"cPosY":-18.024430917434536,"myPosX":73.33792880632093,"myPosY":6.012631749477129,"mySpdX":-22.529817838272507,"mySpdY":-45.41745155112646}},"3":{"bias":154.45810557347005,"weights":{"cPosX":-1.7052389561619286,"cPosY":0.35216796031102815,"myPosX":3.3726439190213764,"myPosY":-0.3050404654101441,"mySpdX":-354.2011761812173,"mySpdY":40.923881037945755}}},{"0":{"bias":4.722396875879657,"weights":{"0":-4.978297024196624,"1":-85.38632421422396,"2":1.097495075678992,"3":2.514159648884917}},"1":{"bias":5.116891432021298,"weights":{"0":3.843993413615153,"1":-27.381643631539685,"2":4.005495526785221,"3":15.464889464355148}},"2":{"bias":37.81559389744557,"weights":{"0":-32.63332032145316,"1":-4.694454563995569,"2":-2.603169648382639,"3":-40.61476512749292}},"3":{"bias":-31.064686055392094,"weights":{"0":19.354127225010767,"1":-2.5528199283275557,"2":-4.808072492047501,"3":15.075849689678764}},"4":{"bias":-3.4176975614401828,"weights":{"0":26.327676418591174,"1":-4.969972213283828,"2":-15.39254946794826,"3":-11.019660756378155}},"5":{"bias":-30.44456767021579,"weights":{"0":0.22460087898235906,"1":29.755062926648417,"2":0.5246097070972386,"3":11.527643596568574}}},{"left":{"bias":7.8776930097356646,"weights":{"0":-3.249412658557668,"1":13.128917202814934,"2":-23.207950291632017,"3":6.0896556362580405,"4":-21.532616284495294,"5":10.985667456231244}},"right":{"bias":-7.689572050469949,"weights":{"0":-9.497765432180085,"1":-1.4848271167339238,"2":10.603453671478013,"3":-2.097740049719148,"4":10.052981539584142,"5":-3.142251748732641}},"up":{"bias":-24.320374994864466,"weights":{"0":11.612193415573637,"1":15.352020631250703,"2":3.385839109722743,"3":-0.38875361050827384,"4":4.117257603851532,"5":-23.00928097107981}},"down":{"bias":2.416667136869919,"weights":{"0":-11.040545264864539,"1":-23.528821480872,"2":-4.025486456077936,"3":1.8489887348297973,"4":-2.2478241049004937,"5":19.864902493594855}}}],"outputLookup":true,"inputLookup":true}